<?xml version="1.0"?>
<opencv_storage>
<stage7>
  <maxWeakCount>6</maxWeakCount>
  <stageThreshold>-7.2005707025527954e-01</stageThreshold>
  <weakClassifiers>
    <_>
      <internalNodes>
        0 -1 60882 2.0827376283705235e-03</internalNodes>
      <leafValues>
        -9.2000001668930054e-01 5.8399999141693115e-01</leafValues></_>
    <_>
      <internalNodes>
        0 -1 2767 1.0104382410645485e-02</internalNodes>
      <leafValues>
        -5.2200001478195190e-01 6.8714320659637451e-01</leafValues></_>
    <_>
      <internalNodes>
        0 -1 60546 1.0845506563782692e-02</internalNodes>
      <leafValues>
        3.9356341958045959e-01 -9.1340076923370361e-01</leafValues></_>
    <_>
      <internalNodes>
        0 -1 58276 2.0773608237504959e-02</internalNodes>
      <leafValues>
        -5.7017749547958374e-01 4.8122456669807434e-01</leafValues></_>
    <_>
      <internalNodes>
        0 -1 11741 2.7619758620858192e-03</internalNodes>
      <leafValues>
        -4.4305026531219482e-01 6.6408234834671021e-01</leafValues></_>
    <_>
      <internalNodes>
        0 -1 43357 1.1818002909421921e-02</internalNodes>
      <leafValues>
        -9.5460933446884155e-01 2.9020521044731140e-01</leafValues></_></weakClassifiers></stage7>
</opencv_storage>
