<?xml version="1.0"?>
<opencv_storage>
<stage5>
  <maxWeakCount>5</maxWeakCount>
  <stageThreshold>-6.5108305215835571e-01</stageThreshold>
  <weakClassifiers>
    <_>
      <internalNodes>
        0 -1 76081 -8.8317040354013443e-03</internalNodes>
      <leafValues>
        7.7537798881530762e-01 -3.7979093194007874e-01</leafValues></_>
    <_>
      <internalNodes>
        0 -1 58448 -7.0608537644147873e-03</internalNodes>
      <leafValues>
        5.7181626558303833e-01 -6.2615770101547241e-01</leafValues></_>
    <_>
      <internalNodes>
        0 -1 34710 4.9522038549184799e-02</internalNodes>
      <leafValues>
        -4.2317318916320801e-01 8.7112009525299072e-01</leafValues></_>
    <_>
      <internalNodes>
        0 -1 25533 3.9689213037490845e-02</internalNodes>
      <leafValues>
        4.1223317384719849e-01 -9.3786084651947021e-01</leafValues></_>
    <_>
      <internalNodes>
        0 -1 26517 6.7337495274841785e-03</internalNodes>
      <leafValues>
        -8.0020338296890259e-01 3.6580562591552734e-01</leafValues></_></weakClassifiers></stage5>
</opencv_storage>
